{
    "activations": [
        4,
        4
    ],
    "layers": [
        {
            "biases_data": [
                -0.20269738137722015,
                -0.27234411239624023,
                -0.5984491109848022,
                0.03647183999419212,
                -0.18173089623451233,
                -0.2958241403102875,
                -0.5708460807800293,
                0.05209435522556305,
                -0.19649052619934082,
                -0.2903461754322052,
                -0.6127383708953857,
                0.054817117750644684,
                -0.1943817287683487,
                -0.29238367080688477,
                -0.5949793457984924,
                0.03503628075122833,
                -0.206167533993721,
                -0.2991064786911011,
                -0.5925695896148682,
                0.04396165907382965,
                -0.21163423359394073,
                -0.26991337537765503,
                -0.5981125831604004,
                0.06283576786518097,
                -0.209307461977005,
                -0.28233274817466736,
                -0.6046520471572876,
                0.024086136370897293,
                -0.19509609043598175,
                -0.300754189491272,
                -0.5945723652839661,
                0.04246699437499046,
                -0.2105543315410614,
                -0.26501941680908203,
                -0.5962706208229065,
                0.06587167829275131,
                -0.1958082914352417,
                -0.30400756001472473,
                -0.587360143661499,
                0.04316551610827446,
                -0.17764419317245483,
                -0.27682825922966003,
                -0.6042752861976624,
                0.06932685524225235,
                -0.19884754717350006,
                -0.27845072746276855,
                -0.592549204826355,
                0.011147379875183105,
                -0.18615840375423431,
                -0.29790806770324707,
                -0.5925268530845642,
                0.029284918680787086,
                -0.17880958318710327,
                -0.28734880685806274,
                -0.566574215888977,
                0.05793637037277222,
                -0.2199172079563141,
                -0.2671577036380768,
                -0.6046991348266602,
                0.0602506622672081,
                -0.20747634768486023,
                -0.27419814467430115,
                -0.5942645072937012,
                0.047535765916109085,
                -0.1915285736322403,
                -0.2876598536968231,
                -0.597349226474762,
                0.04097758233547211,
                -0.1948651820421219,
                -0.26481887698173523,
                -0.6008495092391968,
                0.03665376827120781,
                -0.1906225085258484,
                -0.29811906814575195,
                -0.5654547810554504,
                0.04411306232213974,
                -0.20632076263427734,
                -0.2627984583377838,
                -0.5826524496078491,
                0.051137980073690414
            ],
            "biases_shape": [
                4,
                1,
                20,
                1
            ],
            "weights_data": [
                0.48043787479400635,
                -1.490753173828125,
                1.6019748449325562,
                -1.4072023630142212,
                -1.448054552078247,
                1.1540703773498535,
                -1.3677138090133667,
                1.3452794551849365,
                0.9803988337516785,
                0.4268074929714203,
                0.38355109095573425,
                1.1751986742019653,
                1.2723826169967651,
                0.08195917308330536,
                0.860105574131012,
                -0.5493890047073364,
                -0.7718135118484497,
                -0.8451741933822632,
                -0.2369096875190735,
                -0.6109654307365417,
                0.4708620011806488,
                -1.489630103111267,
                1.57859468460083,
                -1.381813883781433,
                -1.461639404296875,
                1.1405208110809326,
                -1.3924062252044678,
                1.3381502628326416,
                0.9748029708862305,
                0.4277890920639038,
                0.4305519461631775,
                1.1358942985534668,
                1.2870270013809204,
                0.08191443234682083,
                0.8298869132995605,
                -0.5355823040008545,
                -0.7841708660125732,
                -0.845375120639801,
                -0.2295478731393814,
                -0.5877215266227722,
                0.4371304512023926,
                -1.5064021348953247,
                1.6088908910751343,
                -1.3854796886444092,
                -1.4569834470748901,
                1.14523184299469,
                -1.3857711553573608,
                1.3512883186340332,
                0.978998064994812,
                0.42172738909721375,
                0.37496763467788696,
                1.1645147800445557,
                1.266434907913208,
                0.07957283407449722,
                0.8565113544464111,
                -0.5493953824043274,
                -0.7774776220321655,
                -0.8257463574409485,
                -0.2408696711063385,
                -0.6146385669708252,
                0.4848577082157135,
                -1.4978548288345337,
                1.6173968315124512,
                -1.3713458776474,
                -1.453341007232666,
                1.1566050052642822,
                -1.4029003381729126,
                1.3390573263168335,
                0.9837332367897034,
                0.4209691286087036,
                0.3972432315349579,
                1.1454548835754395,
                1.2587026357650757,
                0.09186598658561707,
                0.8666237592697144,
                -0.5403438806533813,
                -0.7732787132263184,
                -0.84475177526474,
                -0.23752054572105408,
                -0.601236879825592,
                0.4835328757762909,
                -1.4842954874038696,
                1.5949680805206299,
                -1.370517373085022,
                -1.448117971420288,
                1.1548142433166504,
                -1.3773696422576904,
                1.3410872220993042,
                0.9853310585021973,
                0.4185655117034912,
                0.37656810879707336,
                1.1541757583618164,
                1.2781087160110474,
                0.07537806034088135,
                0.868606686592102,
                -0.5420920848846436,
                -0.804611325263977,
                -0.8261006474494934,
                -0.229376882314682,
                -0.6109286546707153,
                0.46815529465675354,
                -1.4953336715698242,
                1.6018540859222412,
                -1.412554383277893,
                -1.4516196250915527,
                1.158524513244629,
                -1.3715033531188965,
                1.3385329246520996,
                0.9857965111732483,
                0.4242703318595886,
                0.39082416892051697,
                1.1677422523498535,
                1.2830435037612915,
                0.08438383042812347,
                0.850308895111084,
                -0.5426978468894958,
                -0.7679696679115295,
                -0.8414427638053894,
                -0.2386315017938614,
                -0.601908802986145,
                0.464195191860199,
                -1.5096709728240967,
                1.565625548362732,
                -1.4064133167266846,
                -1.4404298067092896,
                1.1527414321899414,
                -1.3616479635238647,
                1.3438982963562012,
                0.9738619327545166,
                0.4295823872089386,
                0.3899557888507843,
                1.1752970218658447,
                1.2744371891021729,
                0.08090285211801529,
                0.8634526133537292,
                -0.5489863753318787,
                -0.7651423811912537,
                -0.849162757396698,
                -0.22755713760852814,
                -0.6105765700340271,
                0.49584323167800903,
                -1.4847086668014526,
                1.617984652519226,
                -1.3883798122406006,
                -1.4408353567123413,
                1.1340185403823853,
                -1.3620028495788574,
                1.3537094593048096,
                0.9742487668991089,
                0.4180378317832947,
                0.39521488547325134,
                1.158870816230774,
                1.269765853881836,
                0.08657784759998322,
                0.8145143389701843,
                -0.5471676588058472,
                -0.7884328961372375,
                -0.8278512358665466,
                -0.22954817116260529,
                -0.6071223020553589,
                0.47045764327049255,
                -1.5045044422149658,
                1.6170589923858643,
                -1.3839001655578613,
                -1.4520652294158936,
                1.1494032144546509,
                -1.3839466571807861,
                1.3485242128372192,
                0.9880269169807434,
                0.43397584557533264,
                0.39593201875686646,
                1.1585633754730225,
                1.2783966064453125,
                0.07259373366832733,
                0.8558632731437683,
                -0.543063759803772,
                -0.773693859577179,
                -0.8477748036384583,
                -0.22434456646442413,
                -0.609646201133728,
                0.4802749454975128,
                -1.4825290441513062,
                1.5910226106643677,
                -1.3622395992279053,
                -1.450581431388855,
                1.1565375328063965,
                -1.3967151641845703,
                1.3336924314498901,
                0.9913753271102905,
                0.4213559925556183,
                0.36846497654914856,
                1.144667148590088,
                1.2722357511520386,
                0.09643815457820892,
                0.8696709871292114,
                -0.5335372090339661,
                -0.7969775795936584,
                -0.8535648584365845,
                -0.23877404630184174,
                -0.606419026851654,
                0.46322330832481384,
                -1.4810038805007935,
                1.5782701969146729,
                -1.421347975730896,
                -1.4560930728912354,
                1.154538869857788,
                -1.3777786493301392,
                1.3459755182266235,
                0.982707679271698,
                0.42150187492370605,
                0.4300810992717743,
                1.1764283180236816,
                1.2791589498519897,
                0.09234869480133057,
                0.8426982760429382,
                -0.5383575558662415,
                -0.7832717895507813,
                -0.8431780934333801,
                -0.2388470470905304,
                -0.6115376949310303,
                0.4752209484577179,
                -1.486527681350708,
                1.5642000436782837,
                -1.4029731750488281,
                -1.4335205554962158,
                1.1363093852996826,
                -1.4073948860168457,
                1.3530619144439697,
                0.9862784743309021,
                0.4198504388332367,
                0.38133588433265686,
                1.1683669090270996,
                1.2671736478805542,
                0.08794359862804413,
                0.8782386779785156,
                -0.5394695401191711,
                -0.797707200050354,
                -0.8326740860939026,
                -0.2258976697921753,
                -0.6182726621627808,
                0.49469709396362305,
                -1.4832080602645874,
                1.5916916131973267,
                -1.374013066291809,
                -1.4518803358078003,
                1.1531398296356201,
                -1.3682631254196167,
                1.3304375410079956,
                0.9827204942703247,
                0.4254087209701538,
                0.36667701601982117,
                1.1550809144973755,
                1.261877179145813,
                0.06921007484197617,
                0.86351078748703,
                -0.5367931723594666,
                -0.766021728515625,
                -0.8309086561203003,
                -0.22784963250160217,
                -0.6086567044258118,
                0.4662398397922516,
                -1.4850130081176758,
                1.57711660861969,
                -1.374923586845398,
                -1.4509321451187134,
                1.160720705986023,
                -1.3830323219299316,
                1.3441647291183472,
                0.989503800868988,
                0.4223574995994568,
                0.43954941630363464,
                1.1430977582931519,
                1.2833293676376343,
                0.0831221267580986,
                0.8341874480247498,
                -0.5261525511741638,
                -0.7844386696815491,
                -0.8369519114494324,
                -0.2286767214536667,
                -0.6136103868484497,
                0.4884602129459381,
                -1.4985921382904053,
                1.5861403942108154,
                -1.3764879703521729,
                -1.4434010982513428,
                1.160592794418335,
                -1.364948034286499,
                1.3408691883087158,
                0.9779351949691772,
                0.42035913467407227,
                0.3921481668949127,
                1.1489673852920532,
                1.2603601217269897,
                0.07914461940526962,
                0.8473497033119202,
                -0.5336489081382751,
                -0.7636561393737793,
                -0.8288123607635498,
                -0.23865850269794464,
                -0.6048424243927002,
                0.4913887679576874,
                -1.4851529598236084,
                1.5973764657974243,
                -1.4115700721740723,
                -1.44404137134552,
                1.1547547578811646,
                -1.371202826499939,
                1.3303759098052979,
                0.985531210899353,
                0.4210420548915863,
                0.39363372325897217,
                1.1726175546646118,
                1.273187518119812,
                0.08758951723575592,
                0.8784558176994324,
                -0.5397542119026184,
                -0.8030520677566528,
                -0.8451618552207947,
                -0.23347453773021698,
                -0.606791079044342,
                0.47447070479393005,
                -1.4937100410461426,
                1.5865410566329956,
                -1.3761705160140991,
                -1.4571894407272339,
                1.1533598899841309,
                -1.4113818407058716,
                1.347509503364563,
                0.9784912467002869,
                0.41722342371940613,
                0.3998347222805023,
                1.1433608531951904,
                1.263080358505249,
                0.0928025171160698,
                0.8700831532478333,
                -0.5326111316680908,
                -0.7634085416793823,
                -0.8354870080947876,
                -0.22899433970451355,
                -0.6054236888885498,
                0.4829728901386261,
                -1.4900082349777222,
                1.5933218002319336,
                -1.4086811542510986,
                -1.4511003494262695,
                1.1476759910583496,
                -1.3617161512374878,
                1.3426513671875,
                0.9818806648254395,
                0.4276251494884491,
                0.39250993728637695,
                1.1738466024398804,
                1.274401068687439,
                0.0746045634150505,
                0.8505702614784241,
                -0.5430207252502441,
                -0.7741334438323975,
                -0.845868706703186,
                -0.24221031367778778,
                -0.6088060736656189,
                0.4691074788570404,
                -1.4806586503982544,
                1.5827528238296509,
                -1.3784000873565674,
                -1.4612551927566528,
                1.1500545740127563,
                -1.400758981704712,
                1.3387365341186523,
                0.9735943675041199,
                0.42437106370925903,
                0.424496591091156,
                1.137934923171997,
                1.2878000736236572,
                0.08967629075050354,
                0.8372149467468262,
                -0.5321498513221741,
                -0.7740252614021301,
                -0.8491223454475403,
                -0.23552921414375305,
                -0.5924453139305115,
                0.47593334317207336,
                -1.485557198524475,
                1.6075289249420166,
                -1.376155972480774,
                -1.4519624710083008,
                1.1562058925628662,
                -1.3692466020584106,
                1.3502073287963867,
                0.9723997116088867,
                0.42770275473594666,
                0.3804229199886322,
                1.1454890966415405,
                1.2700711488723755,
                0.08468165248632431,
                0.855747401714325,
                -0.5416000485420227,
                -0.7672955989837646,
                -0.8549465537071228,
                -0.23773890733718872,
                -0.6022037267684937
            ],
            "weights_shape": [
                4,
                5,
                20,
                1
            ]
        },
        {
            "biases_data": [
                1.4336053133010864,
                1.309767723083496,
                1.4255379438400269,
                1.3674989938735962,
                1.4379035234451294,
                1.3650131225585938,
                1.4266918897628784,
                1.3077051639556885,
                1.4341493844985962,
                1.3186826705932617,
                1.4082512855529785,
                1.3097163438796997,
                1.4330662488937378,
                1.3091464042663574,
                1.4311162233352661,
                1.3169664144515991,
                1.4178920984268188,
                1.3208180665969849,
                1.4171050786972046,
                1.3012638092041016,
                1.403541088104248,
                1.3150423765182495,
                1.4531902074813843,
                1.3024665117263794,
                1.4229179620742798,
                1.314648151397705,
                1.4258695840835571,
                1.3155804872512817,
                1.4075311422348022,
                1.3092360496520996,
                1.4116642475128174,
                1.3283699750900269,
                1.4243687391281128,
                1.306416630744934,
                1.435621738433838,
                1.3092108964920044,
                1.427478551864624,
                1.2990158796310425,
                1.4261995553970337,
                1.3079947233200073
            ],
            "biases_shape": [
                2,
                1,
                20,
                1
            ],
            "weights_data": [
                -0.15540537238121033,
                -1.3381626605987549,
                1.3359307050704956,
                1.274106502532959,
                1.0219676494598389,
                -0.18512560427188873,
                1.2273907661437988,
                1.0318280458450317,
                -0.15269792079925537,
                -1.375535249710083,
                1.3037029504776,
                1.2456367015838623,
                1.0235480070114136,
                -0.1968241184949875,
                1.2188210487365723,
                1.046433448791504,
                -0.13886769115924835,
                -1.3867595195770264,
                1.3415356874465942,
                1.2595049142837524,
                1.0381025075912476,
                -0.16048112511634827,
                1.2254164218902588,
                1.03513765335083,
                -0.15502119064331055,
                -1.3735886812210083,
                1.327039361000061,
                1.2840460538864136,
                1.0221093893051147,
                -0.1818181574344635,
                1.2207387685775757,
                1.0385228395462036,
                -0.15445220470428467,
                -1.3582087755203247,
                1.3371700048446655,
                1.248191475868225,
                1.0168224573135376,
                -0.22965212166309357,
                1.2202290296554565,
                1.034895896911621,
                -0.15238676965236664,
                -1.3379905223846436,
                1.3076635599136353,
                1.2687560319900513,
                1.0158088207244873,
                -0.1871635764837265,
                1.2234761714935303,
                1.0340620279312134,
                -0.1456906646490097,
                -1.3457703590393066,
                1.3352452516555786,
                1.2805118560791016,
                1.0247926712036133,
                -0.18817521631717682,
                1.2327771186828613,
                1.0409770011901855,
                -0.1374087780714035,
                -1.3520187139511108,
                1.2964953184127808,
                1.2586865425109863,
                1.0613164901733398,
                -0.1671784222126007,
                1.220804214477539,
                1.0297654867172241,
                -0.15916427969932556,
                -1.3715333938598633,
                1.3336292505264282,
                1.2606650590896606,
                1.0497772693634033,
                -0.16556154191493988,
                1.2314363718032837,
                1.0408656597137451,
                -0.15791930258274078,
                -1.3825117349624634,
                1.3347071409225464,
                1.256062388420105,
                1.025141954421997,
                -0.19008155167102814,
                1.2123843431472778,
                1.0306717157363892,
                -0.1502157598733902,
                -1.383528709411621,
                1.3137969970703125,
                1.2431119680404663,
                1.0263272523880005,
                -0.19164074957370758,
                1.2265859842300415,
                1.0311262607574463,
                -0.146785706281662,
                -1.3420528173446655,
                1.3343795537948608,
                1.2837425470352173,
                1.0247962474822998,
                -0.18400819599628448,
                1.2347652912139893,
                1.0623103380203247,
                -0.16143742203712463,
                -1.3794080018997192,
                1.3401106595993042,
                1.2897313833236694,
                1.0208899974822998,
                -0.23686937987804413,
                1.2261784076690674,
                1.0423789024353027,
                -0.15722808241844177,
                -1.3601082563400269,
                1.2954760789871216,
                1.238708257675171,
                1.0321191549301147,
                -0.22217635810375214,
                1.229184627532959,
                1.0306036472320557,
                -0.15780875086784363,
                -1.358741044998169,
                1.3236528635025024,
                1.2605702877044678,
                1.031152606010437,
                -0.18555323779582977,
                1.2291945219039917,
                1.0373045206069946,
                -0.14459052681922913,
                -1.3462283611297607,
                1.3103634119033813,
                1.2651029825210571,
                1.0257130861282349,
                -0.22606037557125092,
                1.221718668937683,
                1.034323811531067,
                -0.14605878293514252,
                -1.3494619131088257,
                1.335591197013855,
                1.2909380197525024,
                1.0121753215789795,
                -0.23787106573581696,
                1.2127217054367065,
                1.0433956384658813,
                -0.1566769778728485,
                -1.3384846448898315,
                1.332934856414795,
                1.2767744064331055,
                1.0249958038330078,
                -0.18935810029506683,
                1.2260223627090454,
                1.0353624820709229,
                -0.15109866857528687,
                -1.3689641952514648,
                1.2983648777008057,
                1.2925165891647339,
                1.0124828815460205,
                -0.19402821362018585,
                1.216976284980774,
                1.0551313161849976,
                -0.162826806306839,
                -1.333554983139038,
                1.3287992477416992,
                1.2499916553497314,
                1.0298603773117065,
                -0.19384419918060303,
                1.2192963361740112,
                1.0403907299041748
            ],
            "weights_shape": [
                2,
                4,
                20,
                1
            ]
        }
    ],
    "num_networks": 7500,
    "topology": [
        5,
        4,
        2
    ]
}